digraph Tree {
node [shape=box, style="filled, rounded", color="black", fontname="helvetica"] ;
edge [fontname="helvetica"] ;
0 [label=<x<SUB>0</SUB> &le; 3.167<br/>gini = 0.765<br/>samples = 1224<br/>value = [492, 105, 51, 132, 60, 168, 216]<br/>class = Neutral>, fillcolor="#f8dcc9"] ;
1 [label=<x<SUB>1</SUB> &le; -4.061<br/>gini = 0.7<br/>samples = 1008<br/>value = [492, 105, 51, 132, 60, 168, 0]<br/>class = Neutral>, fillcolor="#f5ceb3"] ;
0 -> 1 [labeldistance=2.5, labelangle=45, headlabel="True"] ;
2 [label=<gini = 0.0<br/>samples = 168<br/>value = [0, 0, 0, 0, 0, 168, 0]<br/>class = Happiness>, fillcolor="#b139e5"] ;
1 -> 2 ;
3 [label=<x<SUB>2</SUB> &le; 3.344<br/>gini = 0.608<br/>samples = 840<br/>value = [492, 105, 51, 132, 60, 0, 0]<br/>class = Neutral>, fillcolor="#f2bf9a"] ;
1 -> 3 ;
4 [label=<x<SUB>4</SUB> &le; 2.326<br/>gini = 0.488<br/>samples = 710<br/>value = [491, 105, 51, 3, 60, 0, 0]<br/>class = Neutral>, fillcolor="#eeaf81"] ;
3 -> 4 ;
5 [label=<x<SUB>3</SUB> &le; 4.74<br/>gini = 0.335<br/>samples = 603<br/>value = [486, 9, 51, 3, 54, 0, 0]<br/>class = Neutral>, fillcolor="#eb9c63"] ;
4 -> 5 ;
6 [label=<x<SUB>5</SUB> &le; -2.63<br/>gini = 0.207<br/>samples = 549<br/>value = [486, 9, 51, 3, 0, 0, 0]<br/>class = Neutral>, fillcolor="#e89152"] ;
5 -> 6 ;
7 [label=<x<SUB>2</SUB> &le; -2.747<br/>gini = 0.077<br/>samples = 50<br/>value = [2, 0, 48, 0, 0, 0, 0]<br/>class = contempt>, fillcolor="#41e654"] ;
6 -> 7 ;
8 [label=<gini = 0.0<br/>samples = 45<br/>value = [0, 0, 45, 0, 0, 0, 0]<br/>class = contempt>, fillcolor="#39e54d"] ;
7 -> 8 ;
9 [label=<gini = 0.48<br/>samples = 5<br/>value = [2, 0, 3, 0, 0, 0, 0]<br/>class = contempt>, fillcolor="#bdf6c4"] ;
7 -> 9 ;
10 [label=<x<SUB>5</SUB> &le; -1.297<br/>gini = 0.059<br/>samples = 499<br/>value = [484, 9, 3, 3, 0, 0, 0]<br/>class = Neutral>, fillcolor="#e6853f"] ;
6 -> 10 ;
11 [label=<gini = 0.598<br/>samples = 19<br/>value = [10, 6, 3, 0, 0, 0, 0]<br/>class = Neutral>, fillcolor="#f7d8c2"] ;
10 -> 11 ;
12 [label=<gini = 0.025<br/>samples = 480<br/>value = [474, 3, 0, 3, 0, 0, 0]<br/>class = Neutral>, fillcolor="#e5833b"] ;
10 -> 12 ;
13 [label=<gini = 0.0<br/>samples = 54<br/>value = [0, 0, 0, 0, 54, 0, 0]<br/>class = Fear>, fillcolor="#3956e5"] ;
5 -> 13 ;
14 [label=<x<SUB>0</SUB> &le; -2.106<br/>gini = 0.19<br/>samples = 107<br/>value = [5, 96, 0, 0, 6, 0, 0]<br/>class = Anger>, fillcolor="#bfe84f"] ;
4 -> 14 ;
15 [label=<x<SUB>3</SUB> &le; 0.265<br/>gini = 0.02<br/>samples = 97<br/>value = [1, 96, 0, 0, 0, 0, 0]<br/>class = Anger>, fillcolor="#b8e53b"] ;
14 -> 15 ;
16 [label=<gini = 0.0<br/>samples = 93<br/>value = [0, 93, 0, 0, 0, 0, 0]<br/>class = Anger>, fillcolor="#b7e539"] ;
15 -> 16 ;
17 [label=<gini = 0.375<br/>samples = 4<br/>value = [1, 3, 0, 0, 0, 0, 0]<br/>class = Anger>, fillcolor="#cfee7b"] ;
15 -> 17 ;
18 [label=<x<SUB>3</SUB> &le; 5.769<br/>gini = 0.48<br/>samples = 10<br/>value = [4, 0, 0, 0, 6, 0, 0]<br/>class = Fear>, fillcolor="#bdc7f6"] ;
14 -> 18 ;
19 [label=<gini = 0.0<br/>samples = 4<br/>value = [4, 0, 0, 0, 0, 0, 0]<br/>class = Neutral>, fillcolor="#e58139"] ;
18 -> 19 ;
20 [label=<gini = 0.0<br/>samples = 6<br/>value = [0, 0, 0, 0, 6, 0, 0]<br/>class = Fear>, fillcolor="#3956e5"] ;
18 -> 20 ;
21 [label=<x<SUB>0</SUB> &le; -0.9<br/>gini = 0.015<br/>samples = 130<br/>value = [1, 0, 0, 129, 0, 0, 0]<br/>class = Disgust>, fillcolor="#3be5e2"] ;
3 -> 21 ;
22 [label=<gini = 0.0<br/>samples = 126<br/>value = [0, 0, 0, 126, 0, 0, 0]<br/>class = Disgust>, fillcolor="#39e5e2"] ;
21 -> 22 ;
23 [label=<gini = 0.375<br/>samples = 4<br/>value = [1, 0, 0, 3, 0, 0, 0]<br/>class = Disgust>, fillcolor="#7beeec"] ;
21 -> 23 ;
24 [label=<gini = 0.0<br/>samples = 216<br/>value = [0, 0, 0, 0, 0, 0, 216]<br/>class = Surprise>, fillcolor="#e53986"] ;
0 -> 24 [labeldistance=2.5, labelangle=-45, headlabel="False"] ;
}